<<<<<<< HEAD
digraph Tree {
node [shape=box, style="rounded", color="black", fontname=helvetica] ;
edge [fontname=helvetica] ;
0 [label="PremiseCode <= 113.0\nmse = 12742.4\nsamples = 22905\nvalue = 480.2"] ;
1 [label="VictimAge <= 17.5\nmse = 4525.3\nsamples = 8090\nvalue = 537.7"] ;
0 -> 1 [labeldistance=2.5, labelangle=45, headlabel="True"] ;
2 [label="VictimAge <= 15.5\nmse = 676.9\nsamples = 4680\nvalue = 512.5"] ;
1 -> 2 ;
3 [label="long <= -118.3\nmse = 5514.1\nsamples = 113\nvalue = 586.3"] ;
2 -> 3 ;
4 [label="mse = 7483.1\nsamples = 64\nvalue = 563.3"] ;
3 -> 4 ;
5 [label="mse = 1351.9\nsamples = 49\nvalue = 616.3"] ;
3 -> 5 ;
6 [label="PremiseCode <= 108.5\nmse = 438.9\nsamples = 4567\nvalue = 510.8"] ;
2 -> 6 ;
7 [label="mse = 324.3\nsamples = 4546\nvalue = 511.0"] ;
6 -> 7 ;
8 [label="mse = 20242.0\nsamples = 21\nvalue = 466.2"] ;
6 -> 8 ;
9 [label="lat <= 34.1\nmse = 7749.0\nsamples = 3410\nvalue = 572.8"] ;
1 -> 9 ;
10 [label="PremiseCode <= 108.5\nmse = 7226.1\nsamples = 3066\nvalue = 575.6"] ;
9 -> 10 ;
11 [label="mse = 7131.9\nsamples = 2941\nvalue = 576.9"] ;
10 -> 11 ;
12 [label="mse = 8423.1\nsamples = 125\nvalue = 544.6"] ;
10 -> 12 ;
13 [label="humidity <= 91.5\nmse = 11755.9\nsamples = 344\nvalue = 548.0"] ;
9 -> 13 ;
14 [label="mse = 10542.1\nsamples = 305\nvalue = 556.0"] ;
13 -> 14 ;
15 [label="mse = 16848.4\nsamples = 39\nvalue = 478.9"] ;
13 -> 15 ;
16 [label="PremiseCode <= 508.5\nmse = 14435.6\nsamples = 14815\nvalue = 448.8"] ;
0 -> 16 [labeldistance=2.5, labelangle=-45, headlabel="False"] ;
17 [label="PremiseCode <= 407.5\nmse = 14451.9\nsamples = 11973\nvalue = 439.2"] ;
16 -> 17 ;
18 [label="VictimAge <= 17.5\nmse = 12574.6\nsamples = 4228\nvalue = 467.2"] ;
17 -> 18 ;
19 [label="mse = 7828.2\nsamples = 595\nvalue = 422.6"] ;
18 -> 19 ;
20 [label="mse = 12980.8\nsamples = 3633\nvalue = 474.6"] ;
18 -> 20 ;
21 [label="PremiseCode <= 501.5\nmse = 14815.4\nsamples = 7745\nvalue = 423.6"] ;
17 -> 21 ;
22 [label="mse = 12583.4\nsamples = 3926\nvalue = 400.5"] ;
21 -> 22 ;
23 [label="mse = 15996.2\nsamples = 3819\nvalue = 447.4"] ;
21 -> 23 ;
24 [label="PremiseCode <= 756.0\nmse = 12283.4\nsamples = 2842\nvalue = 489.8"] ;
16 -> 24 ;
25 [label="PremiseCode <= 514.5\nmse = 12145.5\nsamples = 2472\nvalue = 479.3"] ;
24 -> 25 ;
26 [label="mse = 9624.8\nsamples = 156\nvalue = 573.6"] ;
25 -> 26 ;
27 [label="mse = 11685.6\nsamples = 2316\nvalue = 473.1"] ;
25 -> 27 ;
28 [label="PremiseCode <= 805.5\nmse = 7837.9\nsamples = 370\nvalue = 557.8"] ;
24 -> 28 ;
29 [label="mse = 5615.0\nsamples = 105\nvalue = 586.7"] ;
28 -> 29 ;
30 [label="mse = 8247.1\nsamples = 265\nvalue = 546.7"] ;
28 -> 30 ;
=======
digraph Tree {
node [shape=box, style="rounded", color="black", fontname=helvetica] ;
edge [fontname=helvetica] ;
0 [label="PremiseCode <= 113.0\nmse = 12742.4\nsamples = 22905\nvalue = 480.2"] ;
1 [label="VictimAge <= 17.5\nmse = 4525.3\nsamples = 8090\nvalue = 537.7"] ;
0 -> 1 [labeldistance=2.5, labelangle=45, headlabel="True"] ;
2 [label="VictimAge <= 15.5\nmse = 676.9\nsamples = 4680\nvalue = 512.5"] ;
1 -> 2 ;
3 [label="long <= -118.3\nmse = 5514.1\nsamples = 113\nvalue = 586.3"] ;
2 -> 3 ;
4 [label="mse = 7483.1\nsamples = 64\nvalue = 563.3"] ;
3 -> 4 ;
5 [label="mse = 1351.9\nsamples = 49\nvalue = 616.3"] ;
3 -> 5 ;
6 [label="PremiseCode <= 108.5\nmse = 438.9\nsamples = 4567\nvalue = 510.8"] ;
2 -> 6 ;
7 [label="mse = 324.3\nsamples = 4546\nvalue = 511.0"] ;
6 -> 7 ;
8 [label="mse = 20242.0\nsamples = 21\nvalue = 466.2"] ;
6 -> 8 ;
9 [label="lat <= 34.1\nmse = 7749.0\nsamples = 3410\nvalue = 572.8"] ;
1 -> 9 ;
10 [label="PremiseCode <= 108.5\nmse = 7226.1\nsamples = 3066\nvalue = 575.6"] ;
9 -> 10 ;
11 [label="mse = 7131.9\nsamples = 2941\nvalue = 576.9"] ;
10 -> 11 ;
12 [label="mse = 8423.1\nsamples = 125\nvalue = 544.6"] ;
10 -> 12 ;
13 [label="humidity <= 91.5\nmse = 11755.9\nsamples = 344\nvalue = 548.0"] ;
9 -> 13 ;
14 [label="mse = 10542.1\nsamples = 305\nvalue = 556.0"] ;
13 -> 14 ;
15 [label="mse = 16848.4\nsamples = 39\nvalue = 478.9"] ;
13 -> 15 ;
16 [label="PremiseCode <= 508.5\nmse = 14435.6\nsamples = 14815\nvalue = 448.8"] ;
0 -> 16 [labeldistance=2.5, labelangle=-45, headlabel="False"] ;
17 [label="PremiseCode <= 407.5\nmse = 14451.9\nsamples = 11973\nvalue = 439.2"] ;
16 -> 17 ;
18 [label="VictimAge <= 17.5\nmse = 12574.6\nsamples = 4228\nvalue = 467.2"] ;
17 -> 18 ;
19 [label="mse = 7828.2\nsamples = 595\nvalue = 422.6"] ;
18 -> 19 ;
20 [label="mse = 12980.8\nsamples = 3633\nvalue = 474.6"] ;
18 -> 20 ;
21 [label="PremiseCode <= 501.5\nmse = 14815.4\nsamples = 7745\nvalue = 423.6"] ;
17 -> 21 ;
22 [label="mse = 12583.4\nsamples = 3926\nvalue = 400.5"] ;
21 -> 22 ;
23 [label="mse = 15996.2\nsamples = 3819\nvalue = 447.4"] ;
21 -> 23 ;
24 [label="PremiseCode <= 756.0\nmse = 12283.4\nsamples = 2842\nvalue = 489.8"] ;
16 -> 24 ;
25 [label="PremiseCode <= 514.5\nmse = 12145.5\nsamples = 2472\nvalue = 479.3"] ;
24 -> 25 ;
26 [label="mse = 9624.8\nsamples = 156\nvalue = 573.6"] ;
25 -> 26 ;
27 [label="mse = 11685.6\nsamples = 2316\nvalue = 473.1"] ;
25 -> 27 ;
28 [label="PremiseCode <= 805.5\nmse = 7837.9\nsamples = 370\nvalue = 557.8"] ;
24 -> 28 ;
29 [label="mse = 5615.0\nsamples = 105\nvalue = 586.7"] ;
28 -> 29 ;
30 [label="mse = 8247.1\nsamples = 265\nvalue = 546.7"] ;
28 -> 30 ;
>>>>>>> ae111ee70abce7ece7f8a9f88213ffe4827f9ac2
}